{
    "Data_modele": "MULTIPLE_CIRCLES",
    "Optimization_models": [
        "Fischetti_Obj_diff",
        "Lan_quad",
        "Mix_diff_obj_quad",
        "Mix_SDP",
        "Mix_couches_SDP",
        "Mix_d_SDP",
        "FprG_SDP",
        "Mix_d_couches_SDP",
        "Lan_SDP",
        "Lan_couches_SDP"
    ],
    "K": 3,
    "n": [
        2,
        5,
        5,
        2
    ],
    "W": [
        [
            [
                0.07532918453216553,
                -1.114035964012146
            ],
            [
                -1.167282223701477,
                1.2037074565887451
            ],
            [
                -0.8903266787528992,
                -0.9813874363899231
            ],
            [
                1.5630353689193726,
                0.5593789219856262
            ],
            [
                -0.011003119871020317,
                -0.6604059338569641
            ]
        ],
        [
            [
                -0.9693846106529236,
                -0.9258254766464233,
                -0.33903536200523376,
                -0.7307649850845337,
                0.24237173795700073
            ],
            [
                1.1991515159606934,
                0.7078672647476196,
                0.9603973031044006,
                0.6229439377784729,
                0.779810905456543
            ],
            [
                -0.08293217420578003,
                0.7702887058258057,
                0.19061686098575592,
                0.6891176104545593,
                -0.23777692019939423
            ],
            [
                0.5217834115028381,
                0.9133946299552917,
                0.7733832001686096,
                1.3427734375,
                0.24273021519184113
            ],
            [
                -0.6389849781990051,
                -0.9327406287193298,
                -0.27995091676712036,
                -0.7450659275054932,
                0.3821263909339905
            ]
        ],
        [
            [
                0.7970618605613708,
                -0.9566453099250793,
                -0.5190989971160889,
                -0.8812899589538574,
                0.8979030251502991
            ],
            [
                -1.3179988861083984,
                1.0691595077514648,
                0.581811785697937,
                1.1574904918670654,
                -1.2498396635055542
            ]
        ]
    ],
    "W_reverse": [
        [
            [
                0.07532918453216553,
                -1.167282223701477,
                -0.8903266787528992,
                1.5630353689193726,
                -0.011003119871020317
            ],
            [
                -1.114035964012146,
                1.2037074565887451,
                -0.9813874363899231,
                0.5593789219856262,
                -0.6604059338569641
            ]
        ],
        [
            [
                -0.9693846106529236,
                1.1991515159606934,
                -0.08293217420578003,
                0.5217834115028381,
                -0.6389849781990051
            ],
            [
                -0.9258254766464233,
                0.7078672647476196,
                0.7702887058258057,
                0.9133946299552917,
                -0.9327406287193298
            ],
            [
                -0.33903536200523376,
                0.9603973031044006,
                0.19061686098575592,
                0.7733832001686096,
                -0.27995091676712036
            ],
            [
                -0.7307649850845337,
                0.6229439377784729,
                0.6891176104545593,
                1.3427734375,
                -0.7450659275054932
            ],
            [
                0.24237173795700073,
                0.779810905456543,
                -0.23777692019939423,
                0.24273021519184113,
                0.3821263909339905
            ]
        ],
        [
            [
                0.7970618605613708,
                -1.3179988861083984
            ],
            [
                -0.9566453099250793,
                1.0691595077514648
            ],
            [
                -0.5190989971160889,
                0.581811785697937
            ],
            [
                -0.8812899589538574,
                1.1574904918670654
            ],
            [
                0.8979030251502991,
                -1.2498396635055542
            ]
        ]
    ],
    "b": [
        [
            -0.09283149242401123,
            -0.10820452868938446,
            0.08040639758110046,
            -0.024805763736367226,
            0.18111081421375275
        ],
        [
            1.4216924905776978,
            -0.5296650528907776,
            -0.3746069371700287,
            -0.5909470915794373,
            1.4227313995361328
        ],
        [
            0.6477394700050354,
            0.0035660897847265005
        ]
    ],
    "L": [
        [
            -0.7789822936058044,
            -0.3315348893404007
        ],
        [
            -0.13495269417762756,
            0.04330828785896301,
            0.27022725343704224,
            -1.403030514717102,
            -0.04104477912187576
        ],
        [
            -1.1990091800689697,
            -0.7776631712913513,
            -0.9643447399139404,
            -1.7157841920852661,
            -1.0308794975280762
        ],
        [
            -5.072001934051514,
            -6.1792683601379395
        ]
    ],
    "U": [
        [
            -0.37898229360580443,
            0.06846511065959932
        ],
        [
            0.3407933712005615,
            0.9917041063308716,
            1.0189127922058105,
            -0.5540648102760315,
            0.22751884162425995
        ],
        [
            1.079538345336914,
            1.9214892387390137,
            0.5972560048103333,
            1.1828898191452026,
            1.1024781465530396
        ],
        [
            4.607018947601318,
            6.639779567718506
        ]
    ]
}