{
    "Data_modele": "MULTIPLE_CIRCLES",
    "Optimization_models": [
        "Fischetti_Obj_diff",
        "Lan_quad",
        "Mix_diff_obj_quad",
        "Mix_d_SDP",
        "Mix_d_couches_SDP",
        "Lan_SDP",
        "Lan_couches_SDP",
        "Mix_SDP",
        "Mix_couches_SDP"
    ],
    "K": 3,
    "n": [
        2,
        5,
        5,
        2
    ],
    "L": [
        [
            -0.8689488291740872,
            -0.2906885489821889
        ],
        [
            -0.530729184237797,
            -0.5314882842973506,
            0.23564152044642606,
            -1.0125443096852136,
            2.259416366498746
        ],
        [
            2.237517239443888,
            1.3989815280315931,
            -1.4121114412240692,
            2.182019416616607,
            -1.0619560459049484
        ],
        [
            -0.5516127789076073,
            -0.613206011144785
        ]
    ],
    "U": [
        [
            -0.4689488291739963,
            0.10931145101790207
        ],
        [
            -0.41383300268419476,
            -0.3847542969659602,
            0.8751725129543606,
            -0.10364607531784298,
            3.392008806150235
        ],
        [
            3.338715788098189,
            3.2619914523590623,
            -1.143983836679748,
            3.20674756832638,
            -0.7260651232217515
        ],
        [
            1.915865455559591,
            1.9456869724148622
        ]
    ],
    "W": [
        [
            [
                0.028636140748858452,
                -0.2636043131351471
            ],
            [
                -0.21208849549293518,
                -0.15474647283554077
            ],
            [
                0.9494280219078064,
                -0.64939945936203
            ],
            [
                0.8944404721260071,
                -1.3778051137924194
            ],
            [
                -1.2168024778366089,
                -1.6146786212921143
            ]
        ],
        [
            [
                -0.24208565056324005,
                -0.09137743711471558,
                0.34985223412513733,
                -1.3187270164489746,
                1.0093523263931274
            ],
            [
                -0.16119946539402008,
                -0.03206467628479004,
                -1.8227918148040771,
                1.2679115533828735,
                1.4517614841461182
            ],
            [
                -0.0036714375019073486,
                0.3465535044670105,
                -0.34429532289505005,
                -0.14156696200370789,
                -0.2732200622558594
            ],
            [
                0.07125141471624374,
                0.0936894416809082,
                0.21673642098903656,
                -1.222301721572876,
                0.9277291297912598
            ],
            [
                -0.3627912998199463,
                -0.2244296669960022,
                -0.02594241499900818,
                -0.016048401594161987,
                -0.2993171215057373
            ]
        ],
        [
            [
                1.4096057415008545,
                -1.8259419202804565,
                -0.1063312292098999,
                0.7649602890014648,
                -0.2889813482761383
            ],
            [
                -0.7434937953948975,
                2.038071393966675,
                0.006333410739898682,
                -1.2861021757125854,
                0.4240812659263611
            ]
        ]
    ],
    "W_reverse": [
        [
            [
                0.028636140748858452,
                -0.21208849549293518,
                0.9494280219078064,
                0.8944404721260071,
                -1.2168024778366089
            ],
            [
                -0.2636043131351471,
                -0.15474647283554077,
                -0.64939945936203,
                -1.3778051137924194,
                -1.6146786212921143
            ]
        ],
        [
            [
                -0.24208565056324005,
                -0.16119946539402008,
                -0.0036714375019073486,
                0.07125141471624374,
                -0.3627912998199463
            ],
            [
                -0.09137743711471558,
                -0.03206467628479004,
                0.3465535044670105,
                0.0936894416809082,
                -0.2244296669960022
            ],
            [
                0.34985223412513733,
                -1.8227918148040771,
                -0.34429532289505005,
                0.21673642098903656,
                -0.02594241499900818
            ],
            [
                -1.3187270164489746,
                1.2679115533828735,
                -0.14156696200370789,
                -1.222301721572876,
                -0.016048401594161987
            ],
            [
                1.0093523263931274,
                1.4517614841461182,
                -0.2732200622558594,
                0.9277291297912598,
                -0.2993171215057373
            ]
        ],
        [
            [
                1.4096057415008545,
                -0.7434937953948975
            ],
            [
                -1.8259419202804565,
                2.038071393966675
            ],
            [
                -0.1063312292098999,
                0.006333410739898682
            ],
            [
                0.7649602890014648,
                -1.2861021757125854
            ],
            [
                -0.2889813482761383,
                0.4240812659263611
            ]
        ]
    ],
    "b": [
        [
            -0.477030873298645,
            -0.6140313744544983,
            1.131632685661316,
            -0.08471143245697021,
            1.8653011322021484
        ],
        [
            -0.2583334445953369,
            -0.7593828439712524,
            -0.3147822320461273,
            -0.047489315271377563,
            -0.033817827701568604
        ],
        [
            -1.0537821054458618,
            1.454742431640625
        ]
    ]
}